<?xml version="1.0" encoding="UTF-8" standalone="yes"?>
<PMML xmlns="http://www.dmg.org/PMML-4_3" xmlns:data="http://jpmml.org/jpmml-model/InlineTable" version="4.3">
	<Header>
		<Application name="JPMML-SkLearn" version="1.5.19"/>
		<Timestamp>2019-08-21T01:46:43Z</Timestamp>
	</Header>
	<DataDictionary>
		<DataField name="y" optype="categorical" dataType="integer">
			<Value value="0"/>
			<Value value="1"/>
		</DataField>
		<DataField name="x1" optype="continuous" dataType="float"/>
		<DataField name="x2" optype="continuous" dataType="float"/>
		<DataField name="x3" optype="continuous" dataType="float"/>
		<DataField name="x4" optype="continuous" dataType="float"/>
		<DataField name="x5" optype="continuous" dataType="float"/>
		<DataField name="x6" optype="continuous" dataType="float"/>
		<DataField name="x7" optype="continuous" dataType="float"/>
		<DataField name="x8" optype="continuous" dataType="float"/>
		<DataField name="x9" optype="continuous" dataType="float"/>
		<DataField name="x10" optype="continuous" dataType="float"/>
	</DataDictionary>
	<TransformationDictionary/>
	<MiningModel functionName="classification">
		<MiningSchema>
			<MiningField name="y" usageType="target"/>
			<MiningField name="x2"/>
			<MiningField name="x6"/>
			<MiningField name="x7"/>
			<MiningField name="x10"/>
			<MiningField name="x5"/>
			<MiningField name="x9"/>
			<MiningField name="x1"/>
			<MiningField name="x8"/>
			<MiningField name="x4"/>
			<MiningField name="x3"/>
		</MiningSchema>
		<Output>
			<OutputField name="probability(0)" optype="continuous" dataType="double" feature="probability" value="0"/>
			<OutputField name="probability(1)" optype="continuous" dataType="double" feature="probability" value="1"/>
		</Output>
		<LocalTransformations>
			<DerivedField name="double(x2)" optype="continuous" dataType="double">
				<FieldRef field="x2"/>
			</DerivedField>
			<DerivedField name="double(x6)" optype="continuous" dataType="double">
				<FieldRef field="x6"/>
			</DerivedField>
			<DerivedField name="double(x7)" optype="continuous" dataType="double">
				<FieldRef field="x7"/>
			</DerivedField>
			<DerivedField name="double(x10)" optype="continuous" dataType="double">
				<FieldRef field="x10"/>
			</DerivedField>
			<DerivedField name="double(x5)" optype="continuous" dataType="double">
				<FieldRef field="x5"/>
			</DerivedField>
			<DerivedField name="double(x9)" optype="continuous" dataType="double">
				<FieldRef field="x9"/>
			</DerivedField>
			<DerivedField name="double(x1)" optype="continuous" dataType="double">
				<FieldRef field="x1"/>
			</DerivedField>
			<DerivedField name="double(x8)" optype="continuous" dataType="double">
				<FieldRef field="x8"/>
			</DerivedField>
			<DerivedField name="double(x4)" optype="continuous" dataType="double">
				<FieldRef field="x4"/>
			</DerivedField>
			<DerivedField name="double(x3)" optype="continuous" dataType="double">
				<FieldRef field="x3"/>
			</DerivedField>
		</LocalTransformations>
		<Segmentation multipleModelMethod="average">
			<Segment id="1">
				<True/>
				<TreeModel functionName="classification" missingValueStrategy="nullPrediction">
					<MiningSchema>
						<MiningField name="double(x2)"/>
						<MiningField name="double(x6)"/>
						<MiningField name="double(x7)"/>
						<MiningField name="double(x10)"/>
						<MiningField name="double(x5)"/>
						<MiningField name="double(x9)"/>
						<MiningField name="double(x1)"/>
						<MiningField name="double(x8)"/>
						<MiningField name="double(x4)"/>
						<MiningField name="double(x3)"/>
					</MiningSchema>
					<Node>
						<True/>
						<Node score="0" recordCount="12.0">
							<SimplePredicate field="double(x2)" operator="lessOrEqual" value="0.009964109864085913"/>
							<ScoreDistribution value="0" recordCount="12.0"/>
							<ScoreDistribution value="1" recordCount="0.0"/>
						</Node>
						<Node>
							<SimplePredicate field="double(x6)" operator="lessOrEqual" value="0.07189548388123512"/>
							<Node>
								<SimplePredicate field="double(x7)" operator="lessOrEqual" value="0.6275594234466553"/>
								<Node score="1" recordCount="3.0">
									<SimplePredicate field="double(x10)" operator="lessOrEqual" value="0.12103452533483505"/>
									<ScoreDistribution value="0" recordCount="0.0"/>
									<ScoreDistribution value="1" recordCount="3.0"/>
								</Node>
								<Node score="0" recordCount="23.0">
									<SimplePredicate field="double(x10)" operator="lessOrEqual" value="0.4967460632324219"/>
									<ScoreDistribution value="0" recordCount="23.0"/>
									<ScoreDistribution value="1" recordCount="0.0"/>
								</Node>
								<Node>
									<SimplePredicate field="double(x5)" operator="lessOrEqual" value="0.8090541362762451"/>
									<Node>
										<SimplePredicate field="double(x9)" operator="lessOrEqual" value="0.6101556718349457"/>
										<Node score="0" recordCount="2.0">
											<SimplePredicate field="double(x6)" operator="lessOrEqual" value="0.03136603720486164"/>
											<ScoreDistribution value="0" recordCount="2.0"/>
											<ScoreDistribution value="1" recordCount="0.0"/>
										</Node>
										<Node score="1" recordCount="3.0">
											<True/>
											<ScoreDistribution value="0" recordCount="0.0"/>
											<ScoreDistribution value="1" recordCount="3.0"/>
										</Node>
									</Node>
									<Node score="0" recordCount="5.0">
										<True/>
										<ScoreDistribution value="0" recordCount="5.0"/>
										<ScoreDistribution value="1" recordCount="0.0"/>
									</Node>
								</Node>
								<Node score="0" recordCount="10.0">
									<True/>
									<ScoreDistribution value="0" recordCount="10.0"/>
									<ScoreDistribution value="1" recordCount="0.0"/>
								</Node>
							</Node>
							<Node>
								<SimplePredicate field="double(x2)" operator="lessOrEqual" value="0.5313402712345123"/>
								<Node score="0" recordCount="1.0">
									<SimplePredicate field="double(x5)" operator="lessOrEqual" value="0.2756725773215294"/>
									<ScoreDistribution value="0" recordCount="1.0"/>
									<ScoreDistribution value="1" recordCount="0.0"/>
								</Node>
								<Node score="1" recordCount="8.0">
									<True/>
									<ScoreDistribution value="0" recordCount="0.0"/>
									<ScoreDistribution value="1" recordCount="8.0"/>
								</Node>
							</Node>
							<Node score="0" recordCount="7.0">
								<SimplePredicate field="double(x7)" operator="lessOrEqual" value="0.9294016361236572"/>
								<ScoreDistribution value="0" recordCount="7.0"/>
								<ScoreDistribution value="1" recordCount="0.0"/>
							</Node>
							<Node score="1" recordCount="1.0">
								<True/>
								<ScoreDistribution value="0" recordCount="0.0"/>
								<ScoreDistribution value="1" recordCount="1.0"/>
							</Node>
						</Node>
						<Node>
							<SimplePredicate field="double(x6)" operator="lessOrEqual" value="0.9883348941802979"/>
							<Node>
								<SimplePredicate field="double(x1)" operator="lessOrEqual" value="0.2513044402003288"/>
								<Node score="0" recordCount="5.0">
									<SimplePredicate field="double(x6)" operator="lessOrEqual" value="0.09734645113348961"/>
									<ScoreDistribution value="0" recordCount="5.0"/>
									<ScoreDistribution value="1" recordCount="0.0"/>
								</Node>
								<Node>
									<SimplePredicate field="double(x1)" operator="lessOrEqual" value="0.06918397173285484"/>
									<Node score="1" recordCount="6.0">
										<SimplePredicate field="double(x7)" operator="lessOrEqual" value="0.12883388996124268"/>
										<ScoreDistribution value="0" recordCount="0.0"/>
										<ScoreDistribution value="1" recordCount="6.0"/>
									</Node>
									<Node score="1" recordCount="4.0">
										<SimplePredicate field="double(x2)" operator="lessOrEqual" value="0.19230695068836212"/>
										<ScoreDistribution value="0" recordCount="0.0"/>
										<ScoreDistribution value="1" recordCount="4.0"/>
									</Node>
									<Node>
										<SimplePredicate field="double(x7)" operator="lessOrEqual" value="0.49092520773410797"/>
										<Node score="1" recordCount="1.0">
											<SimplePredicate field="double(x9)" operator="lessOrEqual" value="0.13957210257649422"/>
											<ScoreDistribution value="0" recordCount="0.0"/>
											<ScoreDistribution value="1" recordCount="1.0"/>
										</Node>
										<Node score="0" recordCount="11.0">
											<True/>
											<ScoreDistribution value="0" recordCount="11.0"/>
											<ScoreDistribution value="1" recordCount="0.0"/>
										</Node>
									</Node>
									<Node score="1" recordCount="6.0">
										<SimplePredicate field="double(x10)" operator="lessOrEqual" value="0.13829580321907997"/>
										<ScoreDistribution value="0" recordCount="0.0"/>
										<ScoreDistribution value="1" recordCount="6.0"/>
									</Node>
									<Node score="0" recordCount="4.0">
										<True/>
										<ScoreDistribution value="0" recordCount="4.0"/>
										<ScoreDistribution value="1" recordCount="0.0"/>
									</Node>
								</Node>
								<Node>
									<SimplePredicate field="double(x6)" operator="lessOrEqual" value="0.8438388109207153"/>
									<Node>
										<SimplePredicate field="double(x5)" operator="lessOrEqual" value="0.2849176675081253"/>
										<Node>
											<SimplePredicate field="double(x5)" operator="lessOrEqual" value="0.06237393245100975"/>
											<Node score="0" recordCount="1.0">
												<SimplePredicate field="double(x8)" operator="lessOrEqual" value="0.6819456517696381"/>
												<ScoreDistribution value="0" recordCount="1.0"/>
												<ScoreDistribution value="1" recordCount="0.0"/>
											</Node>
											<Node score="1" recordCount="3.0">
												<True/>
												<ScoreDistribution value="0" recordCount="0.0"/>
												<ScoreDistribution value="1" recordCount="3.0"/>
											</Node>
										</Node>
										<Node score="1" recordCount="23.0">
											<True/>
											<ScoreDistribution value="0" recordCount="0.0"/>
											<ScoreDistribution value="1" recordCount="23.0"/>
										</Node>
									</Node>
									<Node score="0" recordCount="5.0">
										<SimplePredicate field="double(x9)" operator="lessOrEqual" value="0.09291687607765198"/>
										<ScoreDistribution value="0" recordCount="5.0"/>
										<ScoreDistribution value="1" recordCount="0.0"/>
									</Node>
									<Node score="1" recordCount="6.0">
										<SimplePredicate field="double(x6)" operator="lessOrEqual" value="0.16163204610347748"/>
										<ScoreDistribution value="0" recordCount="0.0"/>
										<ScoreDistribution value="1" recordCount="6.0"/>
									</Node>
									<Node>
										<SimplePredicate field="double(x4)" operator="lessOrEqual" value="0.33487488329410553"/>
										<Node score="1" recordCount="12.0">
											<SimplePredicate field="double(x8)" operator="lessOrEqual" value="0.876628041267395"/>
											<ScoreDistribution value="0" recordCount="0.0"/>
											<ScoreDistribution value="1" recordCount="12.0"/>
										</Node>
										<Node score="0" recordCount="2.0">
											<True/>
											<ScoreDistribution value="0" recordCount="2.0"/>
											<ScoreDistribution value="1" recordCount="0.0"/>
										</Node>
									</Node>
									<Node>
										<SimplePredicate field="double(x10)" operator="lessOrEqual" value="0.7247582972049713"/>
										<Node>
											<SimplePredicate field="double(x6)" operator="lessOrEqual" value="0.3996700495481491"/>
											<Node score="0" recordCount="1.0">
												<SimplePredicate field="double(x2)" operator="lessOrEqual" value="0.33245711773633957"/>
												<ScoreDistribution value="0" recordCount="1.0"/>
												<ScoreDistribution value="1" recordCount="0.0"/>
											</Node>
											<Node score="1" recordCount="6.0">
												<True/>
												<ScoreDistribution value="0" recordCount="0.0"/>
												<ScoreDistribution value="1" recordCount="6.0"/>
											</Node>
										</Node>
										<Node score="0" recordCount="5.0">
											<SimplePredicate field="double(x1)" operator="lessOrEqual" value="0.1780436486005783"/>
											<ScoreDistribution value="0" recordCount="5.0"/>
											<ScoreDistribution value="1" recordCount="0.0"/>
										</Node>
										<Node score="1" recordCount="2.0">
											<SimplePredicate field="double(x6)" operator="lessOrEqual" value="0.7868363559246063"/>
											<ScoreDistribution value="0" recordCount="0.0"/>
											<ScoreDistribution value="1" recordCount="2.0"/>
										</Node>
										<Node score="0" recordCount="1.0">
											<True/>
											<ScoreDistribution value="0" recordCount="1.0"/>
											<ScoreDistribution value="1" recordCount="0.0"/>
										</Node>
									</Node>
									<Node score="0" recordCount="6.0">
										<True/>
										<ScoreDistribution value="0" recordCount="6.0"/>
										<ScoreDistribution value="1" recordCount="0.0"/>
									</Node>
								</Node>
								<Node score="1" recordCount="31.0">
									<True/>
									<ScoreDistribution value="0" recordCount="0.0"/>
									<ScoreDistribution value="1" recordCount="31.0"/>
								</Node>
							</Node>
							<Node>
								<SimplePredicate field="double(x10)" operator="lessOrEqual" value="0.043333958834409714"/>
								<Node>
									<SimplePredicate field="double(x8)" operator="lessOrEqual" value="0.5454447269439697"/>
									<Node score="0" recordCount="7.0">
										<SimplePredicate field="double(x8)" operator="lessOrEqual" value="0.3586844950914383"/>
										<ScoreDistribution value="0" recordCount="7.0"/>
										<ScoreDistribution value="1" recordCount="0.0"/>
									</Node>
									<Node score="1" recordCount="4.0">
										<True/>
										<ScoreDistribution value="0" recordCount="0.0"/>
										<ScoreDistribution value="1" recordCount="4.0"/>
									</Node>
								</Node>
								<Node score="0" recordCount="10.0">
									<True/>
									<ScoreDistribution value="0" recordCount="10.0"/>
									<ScoreDistribution value="1" recordCount="0.0"/>
								</Node>
							</Node>
							<Node>
								<SimplePredicate field="double(x2)" operator="lessOrEqual" value="0.2937728017568588"/>
								<Node>
									<SimplePredicate field="double(x1)" operator="lessOrEqual" value="0.7951435148715973"/>
									<Node>
										<SimplePredicate field="double(x2)" operator="lessOrEqual" value="0.18610842525959015"/>
										<Node>
											<SimplePredicate field="double(x9)" operator="lessOrEqual" value="0.2667961120605469"/>
											<Node>
												<SimplePredicate field="double(x10)" operator="lessOrEqual" value="0.5638146102428436"/>
												<Node score="0" recordCount="12.0">
													<SimplePredicate field="double(x3)" operator="lessOrEqual" value="0.7723525166511536"/>
													<ScoreDistribution value="0" recordCount="12.0"/>
													<ScoreDistribution value="1" recordCount="0.0"/>
												</Node>
												<Node score="1" recordCount="2.0">
													<SimplePredicate field="double(x9)" operator="lessOrEqual" value="0.06404098775237799"/>
													<ScoreDistribution value="0" recordCount="0.0"/>
													<ScoreDistribution value="1" recordCount="2.0"/>
												</Node>
												<Node score="0" recordCount="1.0">
													<True/>
													<ScoreDistribution value="0" recordCount="1.0"/>
													<ScoreDistribution value="1" recordCount="0.0"/>
												</Node>
											</Node>
											<Node score="0" recordCount="2.0">
												<SimplePredicate field="double(x2)" operator="lessOrEqual" value="0.04260934703052044"/>
												<ScoreDistribution value="0" recordCount="2.0"/>
												<ScoreDistribution value="1" recordCount="0.0"/>
											</Node>
											<Node>
												<SimplePredicate field="double(x1)" operator="lessOrEqual" value="0.3522213399410248"/>
												<Node score="0" recordCount="1.0">
													<SimplePredicate field="double(x2)" operator="lessOrEqual" value="0.0968456082046032"/>
													<ScoreDistribution value="0" recordCount="1.0"/>
													<ScoreDistribution value="1" recordCount="0.0"/>
												</Node>
												<Node score="1" recordCount="1.0">
													<True/>
													<ScoreDistribution value="0" recordCount="0.0"/>
													<ScoreDistribution value="1" recordCount="1.0"/>
												</Node>
											</Node>
											<Node score="1" recordCount="4.0">
												<True/>
												<ScoreDistribution value="0" recordCount="0.0"/>
												<ScoreDistribution value="1" recordCount="4.0"/>
											</Node>
										</Node>
										<Node>
											<SimplePredicate field="double(x1)" operator="lessOrEqual" value="0.612079530954361"/>
											<Node>
												<SimplePredicate field="double(x4)" operator="lessOrEqual" value="0.8153194189071655"/>
												<Node score="1" recordCount="5.0">
													<SimplePredicate field="double(x4)" operator="lessOrEqual" value="0.10945358872413635"/>
													<ScoreDistribution value="0" recordCount="0.0"/>
													<ScoreDistribution value="1" recordCount="5.0"/>
												</Node>
												<Node score="1" recordCount="4.0">
													<SimplePredicate field="double(x6)" operator="lessOrEqual" value="0.1615336462855339"/>
													<ScoreDistribution value="0" recordCount="0.0"/>
													<ScoreDistribution value="1" recordCount="4.0"/>
												</Node>
												<Node score="0" recordCount="14.0">
													<True/>
													<ScoreDistribution value="0" recordCount="14.0"/>
													<ScoreDistribution value="1" recordCount="0.0"/>
												</Node>
											</Node>
											<Node score="1" recordCount="7.0">
												<True/>
												<ScoreDistribution value="0" recordCount="0.0"/>
												<ScoreDistribution value="1" recordCount="7.0"/>
											</Node>
										</Node>
										<Node score="1" recordCount="12.0">
											<SimplePredicate field="double(x1)" operator="lessOrEqual" value="0.7326298356056213"/>
											<ScoreDistribution value="0" recordCount="0.0"/>
											<ScoreDistribution value="1" recordCount="12.0"/>
										</Node>
										<Node score="1" recordCount="3.0">
											<SimplePredicate field="double(x6)" operator="lessOrEqual" value="0.39706210792064667"/>
											<ScoreDistribution value="0" recordCount="0.0"/>
											<ScoreDistribution value="1" recordCount="3.0"/>
										</Node>
										<Node score="0" recordCount="1.0">
											<SimplePredicate field="double(x2)" operator="lessOrEqual" value="0.11930366232991219"/>
											<ScoreDistribution value="0" recordCount="1.0"/>
											<ScoreDistribution value="1" recordCount="0.0"/>
										</Node>
										<Node score="1" recordCount="1.0">
											<True/>
											<ScoreDistribution value="0" recordCount="0.0"/>
											<ScoreDistribution value="1" recordCount="1.0"/>
										</Node>
									</Node>
									<Node>
										<SimplePredicate field="double(x9)" operator="lessOrEqual" value="0.7749698460102081"/>
										<Node>
											<SimplePredicate field="double(x3)" operator="lessOrEqual" value="0.9402140080928802"/>
											<Node>
												<SimplePredicate field="double(x5)" operator="lessOrEqual" value="0.2673106715083122"/>
												<Node>
													<SimplePredicate field="double(x4)" operator="lessOrEqual" value="0.4751546084880829"/>
													<Node score="0" recordCount="1.0">
														<SimplePredicate field="double(x8)" operator="lessOrEqual" value="0.5977566540241241"/>
														<ScoreDistribution value="0" recordCount="1.0"/>
														<ScoreDistribution value="1" recordCount="0.0"/>
													</Node>
													<Node score="0" recordCount="1.0">
														<SimplePredicate field="double(x10)" operator="lessOrEqual" value="0.6198308318853378"/>
														<ScoreDistribution value="0" recordCount="1.0"/>
														<ScoreDistribution value="1" recordCount="0.0"/>
													</Node>
													<Node score="1" recordCount="2.0">
														<True/>
														<ScoreDistribution value="0" recordCount="0.0"/>
														<ScoreDistribution value="1" recordCount="2.0"/>
													</Node>
												</Node>
												<Node score="1" recordCount="4.0">
													<True/>
													<ScoreDistribution value="0" recordCount="0.0"/>
													<ScoreDistribution value="1" recordCount="4.0"/>
												</Node>
											</Node>
											<Node>
												<SimplePredicate field="double(x1)" operator="lessOrEqual" value="0.3192164748907089"/>
												<Node score="0" recordCount="1.0">
													<SimplePredicate field="double(x10)" operator="lessOrEqual" value="0.21678759902715683"/>
													<ScoreDistribution value="0" recordCount="1.0"/>
													<ScoreDistribution value="1" recordCount="0.0"/>
												</Node>
												<Node score="1" recordCount="3.0">
													<True/>
													<ScoreDistribution value="0" recordCount="0.0"/>
													<ScoreDistribution value="1" recordCount="3.0"/>
												</Node>
											</Node>
											<Node score="1" recordCount="2.0">
												<SimplePredicate field="double(x8)" operator="lessOrEqual" value="0.08324230834841728"/>
												<ScoreDistribution value="0" recordCount="0.0"/>
												<ScoreDistribution value="1" recordCount="2.0"/>
											</Node>
											<Node score="0" recordCount="23.0">
												<True/>
												<ScoreDistribution value="0" recordCount="23.0"/>
												<ScoreDistribution value="1" recordCount="0.0"/>
											</Node>
										</Node>
										<Node score="1" recordCount="4.0">
											<True/>
											<ScoreDistribution value="0" recordCount="0.0"/>
											<ScoreDistribution value="1" recordCount="4.0"/>
										</Node>
									</Node>
									<Node score="0" recordCount="16.0">
										<True/>
										<ScoreDistribution value="0" recordCount="16.0"/>
										<ScoreDistribution value="1" recordCount="0.0"/>
									</Node>
								</Node>
								<Node score="0" recordCount="12.0">
									<SimplePredicate field="double(x5)" operator="lessOrEqual" value="0.5399759411811829"/>
									<ScoreDistribution value="0" recordCount="12.0"/>
									<ScoreDistribution value="1" recordCount="0.0"/>
								</Node>
								<Node score="1" recordCount="2.0">
									<SimplePredicate field="double(x10)" operator="lessOrEqual" value="0.5295660123229027"/>
									<ScoreDistribution value="0" recordCount="0.0"/>
									<ScoreDistribution value="1" recordCount="2.0"/>
								</Node>
								<Node score="0" recordCount="2.0">
									<True/>
									<ScoreDistribution value="0" recordCount="2.0"/>
									<ScoreDistribution value="1" recordCount="0.0"/>
								</Node>
							</Node>
							<Node>
								<SimplePredicate field="double(x1)" operator="lessOrEqual" value="0.2841843217611313"/>
								<Node score="0" recordCount="11.0">
									<SimplePredicate field="double(x7)" operator="lessOrEqual" value="0.5447797179222107"/>
									<ScoreDistribution value="0" recordCount="11.0"/>
									<ScoreDistribution value="1" recordCount="0.0"/>
								</Node>
								<Node score="1" recordCount="3.0">
									<True/>
									<ScoreDistribution value="0" recordCount="0.0"/>
									<ScoreDistribution value="1" recordCount="3.0"/>
								</Node>
							</Node>
							<Node>
								<SimplePredicate field="double(x10)" operator="lessOrEqual" value="0.0883454792201519"/>
								<Node>
									<SimplePredicate field="double(x3)" operator="lessOrEqual" value="0.3224090486764908"/>
									<Node score="1" recordCount="1.0">
										<SimplePredicate field="double(x9)" operator="lessOrEqual" value="0.23905377089977264"/>
										<ScoreDistribution value="0" recordCount="0.0"/>
										<ScoreDistribution value="1" recordCount="1.0"/>
									</Node>
									<Node score="0" recordCount="3.0">
										<True/>
										<ScoreDistribution value="0" recordCount="3.0"/>
										<ScoreDistribution value="1" recordCount="0.0"/>
									</Node>
								</Node>
								<Node score="1" recordCount="17.0">
									<True/>
									<ScoreDistribution value="0" recordCount="0.0"/>
									<ScoreDistribution value="1" recordCount="17.0"/>
								</Node>
							</Node>
							<Node>
								<SimplePredicate field="double(x5)" operator="lessOrEqual" value="0.34799912571907043"/>
								<Node>
									<SimplePredicate field="double(x5)" operator="lessOrEqual" value="0.1560942903161049"/>
									<Node score="0" recordCount="4.0">
										<SimplePredicate field="double(x5)" operator="lessOrEqual" value="0.018769241869449615"/>
										<ScoreDistribution value="0" recordCount="4.0"/>
										<ScoreDistribution value="1" recordCount="0.0"/>
									</Node>
									<Node score="1" recordCount="10.0">
										<SimplePredicate field="double(x2)" operator="lessOrEqual" value="0.45570696890354156"/>
										<ScoreDistribution value="0" recordCount="0.0"/>
										<ScoreDistribution value="1" recordCount="10.0"/>
									</Node>
									<Node>
										<SimplePredicate field="double(x5)" operator="lessOrEqual" value="0.08986211568117142"/>
										<Node>
											<SimplePredicate field="double(x9)" operator="lessOrEqual" value="0.8146259784698486"/>
											<Node score="0" recordCount="6.0">
												<SimplePredicate field="double(x6)" operator="lessOrEqual" value="0.4234086126089096"/>
												<ScoreDistribution value="0" recordCount="6.0"/>
												<ScoreDistribution value="1" recordCount="0.0"/>
											</Node>
											<Node score="1" recordCount="3.0">
												<SimplePredicate field="double(x7)" operator="lessOrEqual" value="0.2886546738445759"/>
												<ScoreDistribution value="0" recordCount="0.0"/>
												<ScoreDistribution value="1" recordCount="3.0"/>
											</Node>
											<Node score="0" recordCount="3.0">
												<SimplePredicate field="double(x6)" operator="lessOrEqual" value="0.6841306686401367"/>
												<ScoreDistribution value="0" recordCount="3.0"/>
												<ScoreDistribution value="1" recordCount="0.0"/>
											</Node>
											<Node score="1" recordCount="1.0">
												<True/>
												<ScoreDistribution value="0" recordCount="0.0"/>
												<ScoreDistribution value="1" recordCount="1.0"/>
											</Node>
										</Node>
										<Node score="1" recordCount="2.0">
											<True/>
											<ScoreDistribution value="0" recordCount="0.0"/>
											<ScoreDistribution value="1" recordCount="2.0"/>
										</Node>
									</Node>
									<Node score="0" recordCount="1.0">
										<SimplePredicate field="double(x7)" operator="lessOrEqual" value="0.16707414388656616"/>
										<ScoreDistribution value="0" recordCount="1.0"/>
										<ScoreDistribution value="1" recordCount="0.0"/>
									</Node>
									<Node score="1" recordCount="11.0">
										<True/>
										<ScoreDistribution value="0" recordCount="0.0"/>
										<ScoreDistribution value="1" recordCount="11.0"/>
									</Node>
								</Node>
								<Node>
									<SimplePredicate field="double(x6)" operator="lessOrEqual" value="0.7739859521389008"/>
									<Node score="1" recordCount="3.0">
										<SimplePredicate field="double(x10)" operator="lessOrEqual" value="0.15172234922647476"/>
										<ScoreDistribution value="0" recordCount="0.0"/>
										<ScoreDistribution value="1" recordCount="3.0"/>
									</Node>
									<Node>
										<SimplePredicate field="double(x9)" operator="lessOrEqual" value="0.6091980934143066"/>
										<Node score="1" recordCount="4.0">
											<SimplePredicate field="double(x1)" operator="lessOrEqual" value="0.4149155020713806"/>
											<ScoreDistribution value="0" recordCount="0.0"/>
											<ScoreDistribution value="1" recordCount="4.0"/>
										</Node>
										<Node score="0" recordCount="12.0">
											<SimplePredicate field="double(x9)" operator="lessOrEqual" value="0.2286086231470108"/>
											<ScoreDistribution value="0" recordCount="12.0"/>
											<ScoreDistribution value="1" recordCount="0.0"/>
										</Node>
										<Node score="0" recordCount="4.0">
											<SimplePredicate field="double(x10)" operator="lessOrEqual" value="0.2478036805987358"/>
											<ScoreDistribution value="0" recordCount="4.0"/>
											<ScoreDistribution value="1" recordCount="0.0"/>
										</Node>
										<Node score="1" recordCount="6.0">
											<True/>
											<ScoreDistribution value="0" recordCount="0.0"/>
											<ScoreDistribution value="1" recordCount="6.0"/>
										</Node>
									</Node>
									<Node>
										<SimplePredicate field="double(x8)" operator="lessOrEqual" value="0.2773672640323639"/>
										<Node score="1" recordCount="2.0">
											<SimplePredicate field="double(x1)" operator="lessOrEqual" value="0.5273122191429138"/>
											<ScoreDistribution value="0" recordCount="0.0"/>
											<ScoreDistribution value="1" recordCount="2.0"/>
										</Node>
										<Node score="0" recordCount="3.0">
											<True/>
											<ScoreDistribution value="0" recordCount="3.0"/>
											<ScoreDistribution value="1" recordCount="0.0"/>
										</Node>
									</Node>
									<Node score="0" recordCount="17.0">
										<True/>
										<ScoreDistribution value="0" recordCount="17.0"/>
										<ScoreDistribution value="1" recordCount="0.0"/>
									</Node>
								</Node>
								<Node score="0" recordCount="9.0">
									<True/>
									<ScoreDistribution value="0" recordCount="9.0"/>
									<ScoreDistribution value="1" recordCount="0.0"/>
								</Node>
							</Node>
							<Node>
								<SimplePredicate field="double(x7)" operator="lessOrEqual" value="0.2352273240685463"/>
								<Node>
									<SimplePredicate field="double(x8)" operator="lessOrEqual" value="0.6730768084526062"/>
									<Node score="1" recordCount="23.0">
										<SimplePredicate field="double(x10)" operator="lessOrEqual" value="0.8815931081771851"/>
										<ScoreDistribution value="0" recordCount="0.0"/>
										<ScoreDistribution value="1" recordCount="23.0"/>
									</Node>
									<Node score="0" recordCount="1.0">
										<SimplePredicate field="double(x4)" operator="lessOrEqual" value="0.10323740914463997"/>
										<ScoreDistribution value="0" recordCount="1.0"/>
										<ScoreDistribution value="1" recordCount="0.0"/>
									</Node>
									<Node score="1" recordCount="2.0">
										<True/>
										<ScoreDistribution value="0" recordCount="0.0"/>
										<ScoreDistribution value="1" recordCount="2.0"/>
									</Node>
								</Node>
								<Node>
									<SimplePredicate field="double(x10)" operator="lessOrEqual" value="0.8285287320613861"/>
									<Node score="0" recordCount="5.0">
										<SimplePredicate field="double(x8)" operator="lessOrEqual" value="0.9258808195590973"/>
										<ScoreDistribution value="0" recordCount="5.0"/>
										<ScoreDistribution value="1" recordCount="0.0"/>
									</Node>
									<Node score="1" recordCount="3.0">
										<True/>
										<ScoreDistribution value="0" recordCount="0.0"/>
										<ScoreDistribution value="1" recordCount="3.0"/>
									</Node>
								</Node>
								<Node score="1" recordCount="7.0">
									<True/>
									<ScoreDistribution value="0" recordCount="0.0"/>
									<ScoreDistribution value="1" recordCount="7.0"/>
								</Node>
							</Node>
							<Node>
								<SimplePredicate field="double(x3)" operator="lessOrEqual" value="0.8915524482727051"/>
								<Node>
									<SimplePredicate field="double(x2)" operator="lessOrEqual" value="0.7952108383178711"/>
									<Node>
										<SimplePredicate field="double(x8)" operator="lessOrEqual" value="0.8836048245429993"/>
										<Node>
											<SimplePredicate field="double(x5)" operator="lessOrEqual" value="0.9280369281768799"/>
											<Node>
												<SimplePredicate field="double(x10)" operator="lessOrEqual" value="0.6012076735496521"/>
												<Node>
													<SimplePredicate field="double(x7)" operator="lessOrEqual" value="0.756498247385025"/>
													<Node>
														<SimplePredicate field="double(x6)" operator="lessOrEqual" value="0.34278739988803864"/>
														<Node score="1" recordCount="13.0">
															<SimplePredicate field="double(x3)" operator="lessOrEqual" value="0.5290268510580063"/>
															<ScoreDistribution value="0" recordCount="0.0"/>
															<ScoreDistribution value="1" recordCount="13.0"/>
														</Node>
														<Node score="0" recordCount="1.0">
															<True/>
															<ScoreDistribution value="0" recordCount="1.0"/>
															<ScoreDistribution value="1" recordCount="0.0"/>
														</Node>
													</Node>
													<Node>
														<SimplePredicate field="double(x9)" operator="lessOrEqual" value="0.6415682733058929"/>
														<Node>
															<SimplePredicate field="double(x9)" operator="lessOrEqual" value="0.37423285841941833"/>
															<Node>
																<SimplePredicate field="double(x9)" operator="lessOrEqual" value="0.18039800971746445"/>
																<Node score="0" recordCount="2.0">
																	<SimplePredicate field="double(x5)" operator="lessOrEqual" value="0.5862675756216049"/>
																	<ScoreDistribution value="0" recordCount="2.0"/>
																	<ScoreDistribution value="1" recordCount="0.0"/>
																</Node>
																<Node score="1" recordCount="1.0">
																	<True/>
																	<ScoreDistribution value="0" recordCount="0.0"/>
																	<ScoreDistribution value="1" recordCount="1.0"/>
																</Node>
															</Node>
															<Node score="0" recordCount="3.0">
																<True/>
																<ScoreDistribution value="0" recordCount="3.0"/>
																<ScoreDistribution value="1" recordCount="0.0"/>
															</Node>
														</Node>
														<Node score="1" recordCount="5.0">
															<True/>
															<ScoreDistribution value="0" recordCount="0.0"/>
															<ScoreDistribution value="1" recordCount="5.0"/>
														</Node>
													</Node>
													<Node score="0" recordCount="5.0">
														<True/>
														<ScoreDistribution value="0" recordCount="5.0"/>
														<ScoreDistribution value="1" recordCount="0.0"/>
													</Node>
												</Node>
												<Node score="1" recordCount="19.0">
													<True/>
													<ScoreDistribution value="0" recordCount="0.0"/>
													<ScoreDistribution value="1" recordCount="19.0"/>
												</Node>
											</Node>
											<Node>
												<SimplePredicate field="double(x10)" operator="lessOrEqual" value="0.7625686526298523"/>
												<Node score="0" recordCount="6.0">
													<SimplePredicate field="double(x3)" operator="lessOrEqual" value="0.7111263871192932"/>
													<ScoreDistribution value="0" recordCount="6.0"/>
													<ScoreDistribution value="1" recordCount="0.0"/>
												</Node>
												<Node score="1" recordCount="1.0">
													<True/>
													<ScoreDistribution value="0" recordCount="0.0"/>
													<ScoreDistribution value="1" recordCount="1.0"/>
												</Node>
											</Node>
											<Node>
												<SimplePredicate field="double(x4)" operator="lessOrEqual" value="0.8379036784172058"/>
												<Node>
													<SimplePredicate field="double(x2)" operator="lessOrEqual" value="0.6253272294998169"/>
													<Node score="1" recordCount="1.0">
														<SimplePredicate field="double(x10)" operator="lessOrEqual" value="0.7909398078918457"/>
														<ScoreDistribution value="0" recordCount="0.0"/>
														<ScoreDistribution value="1" recordCount="1.0"/>
													</Node>
													<Node score="0" recordCount="5.0">
														<True/>
														<ScoreDistribution value="0" recordCount="5.0"/>
														<ScoreDistribution value="1" recordCount="0.0"/>
													</Node>
												</Node>
												<Node score="0" recordCount="1.0">
													<SimplePredicate field="double(x1)" operator="lessOrEqual" value="0.3315349668264389"/>
													<ScoreDistribution value="0" recordCount="1.0"/>
													<ScoreDistribution value="1" recordCount="0.0"/>
												</Node>
												<Node score="1" recordCount="7.0">
													<True/>
													<ScoreDistribution value="0" recordCount="0.0"/>
													<ScoreDistribution value="1" recordCount="7.0"/>
												</Node>
											</Node>
											<Node score="1" recordCount="7.0">
												<True/>
												<ScoreDistribution value="0" recordCount="0.0"/>
												<ScoreDistribution value="1" recordCount="7.0"/>
											</Node>
										</Node>
										<Node score="0" recordCount="4.0">
											<True/>
											<ScoreDistribution value="0" recordCount="4.0"/>
											<ScoreDistribution value="1" recordCount="0.0"/>
										</Node>
									</Node>
									<Node score="0" recordCount="7.0">
										<SimplePredicate field="double(x10)" operator="lessOrEqual" value="0.7166584730148315"/>
										<ScoreDistribution value="0" recordCount="7.0"/>
										<ScoreDistribution value="1" recordCount="0.0"/>
									</Node>
									<Node score="1" recordCount="1.0">
										<True/>
										<ScoreDistribution value="0" recordCount="0.0"/>
										<ScoreDistribution value="1" recordCount="1.0"/>
									</Node>
								</Node>
								<Node>
									<SimplePredicate field="double(x8)" operator="lessOrEqual" value="0.8659375011920929"/>
									<Node>
										<SimplePredicate field="double(x2)" operator="lessOrEqual" value="0.9951970875263214"/>
										<Node score="1" recordCount="1.0">
											<SimplePredicate field="double(x9)" operator="lessOrEqual" value="0.039935942739248276"/>
											<ScoreDistribution value="0" recordCount="0.0"/>
											<ScoreDistribution value="1" recordCount="1.0"/>
										</Node>
										<Node score="0" recordCount="16.0">
											<SimplePredicate field="double(x6)" operator="lessOrEqual" value="0.6819308698177338"/>
											<ScoreDistribution value="0" recordCount="16.0"/>
											<ScoreDistribution value="1" recordCount="0.0"/>
										</Node>
										<Node>
											<SimplePredicate field="double(x8)" operator="lessOrEqual" value="0.6067757606506348"/>
											<Node score="0" recordCount="1.0">
												<SimplePredicate field="double(x10)" operator="lessOrEqual" value="0.28189754486083984"/>
												<ScoreDistribution value="0" recordCount="1.0"/>
												<ScoreDistribution value="1" recordCount="0.0"/>
											</Node>
											<Node score="1" recordCount="3.0">
												<True/>
												<ScoreDistribution value="0" recordCount="0.0"/>
												<ScoreDistribution value="1" recordCount="3.0"/>
											</Node>
										</Node>
										<Node score="0" recordCount="8.0">
											<True/>
											<ScoreDistribution value="0" recordCount="8.0"/>
											<ScoreDistribution value="1" recordCount="0.0"/>
										</Node>
									</Node>
									<Node score="1" recordCount="2.0">
										<True/>
										<ScoreDistribution value="0" recordCount="0.0"/>
										<ScoreDistribution value="1" recordCount="2.0"/>
									</Node>
								</Node>
								<Node score="1" recordCount="3.0">
									<True/>
									<ScoreDistribution value="0" recordCount="0.0"/>
									<ScoreDistribution value="1" recordCount="3.0"/>
								</Node>
							</Node>
							<Node score="1" recordCount="9.0">
								<SimplePredicate field="double(x5)" operator="lessOrEqual" value="0.561342716217041"/>
								<ScoreDistribution value="0" recordCount="0.0"/>
								<ScoreDistribution value="1" recordCount="9.0"/>
							</Node>
							<Node score="1" recordCount="2.0">
								<SimplePredicate field="double(x10)" operator="lessOrEqual" value="0.6441009640693665"/>
								<ScoreDistribution value="0" recordCount="0.0"/>
								<ScoreDistribution value="1" recordCount="2.0"/>
							</Node>
							<Node score="0" recordCount="2.0">
								<True/>
								<ScoreDistribution value="0" recordCount="2.0"/>
								<ScoreDistribution value="1" recordCount="0.0"/>
							</Node>
						</Node>
						<Node score="1" recordCount="7.0">
							<True/>
							<ScoreDistribution value="0" recordCount="0.0"/>
							<ScoreDistribution value="1" recordCount="7.0"/>
						</Node>
					</Node>
				</TreeModel>
			</Segment>
			<Segment id="2">
				<True/>
				<TreeModel functionName="classification" missingValueStrategy="nullPrediction">
					<MiningSchema>
						<MiningField name="double(x2)"/>
						<MiningField name="double(x6)"/>
						<MiningField name="double(x7)"/>
						<MiningField name="double(x10)"/>
						<MiningField name="double(x5)"/>
						<MiningField name="double(x9)"/>
						<MiningField name="double(x1)"/>
						<MiningField name="double(x8)"/>
						<MiningField name="double(x4)"/>
						<MiningField name="double(x3)"/>
					</MiningSchema>
					<Node>
						<True/>
						<Node score="0" recordCount="8.0">
							<SimplePredicate field="double(x2)" operator="lessOrEqual" value="0.009358628652989864"/>
							<ScoreDistribution value="0" recordCount="8.0"/>
							<ScoreDistribution value="1" recordCount="0.0"/>
						</Node>
						<Node>
							<SimplePredicate field="double(x5)" operator="lessOrEqual" value="0.982273131608963"/>
							<Node>
								<SimplePredicate field="double(x6)" operator="lessOrEqual" value="0.5875873863697052"/>
								<Node>
									<SimplePredicate field="double(x9)" operator="lessOrEqual" value="0.4280723035335541"/>
									<Node>
										<SimplePredicate field="double(x2)" operator="lessOrEqual" value="0.9170399010181427"/>
										<Node>
											<SimplePredicate field="double(x8)" operator="lessOrEqual" value="0.9629704356193542"/>
											<Node>
												<SimplePredicate field="double(x4)" operator="lessOrEqual" value="0.19444089382886887"/>
												<Node>
													<SimplePredicate field="double(x6)" operator="lessOrEqual" value="0.16914788633584976"/>
													<Node score="0" recordCount="6.0">
														<SimplePredicate field="double(x1)" operator="lessOrEqual" value="0.5711741745471954"/>
														<ScoreDistribution value="0" recordCount="6.0"/>
														<ScoreDistribution value="1" recordCount="0.0"/>
													</Node>
													<Node score="1" recordCount="2.0">
														<True/>
														<ScoreDistribution value="0" recordCount="0.0"/>
														<ScoreDistribution value="1" recordCount="2.0"/>
													</Node>
												</Node>
												<Node score="0" recordCount="1.0">
													<SimplePredicate field="double(x9)" operator="lessOrEqual" value="0.124075498431921"/>
													<ScoreDistribution value="0" recordCount="1.0"/>
													<ScoreDistribution value="1" recordCount="0.0"/>
												</Node>
												<Node score="1" recordCount="22.0">
													<True/>
													<ScoreDistribution value="0" recordCount="0.0"/>
													<ScoreDistribution value="1" recordCount="22.0"/>
												</Node>
											</Node>
											<Node>
												<SimplePredicate field="double(x10)" operator="lessOrEqual" value="0.9551677107810974"/>
												<Node>
													<SimplePredicate field="double(x4)" operator="lessOrEqual" value="0.8159139454364777"/>
													<Node>
														<SimplePredicate field="double(x4)" operator="lessOrEqual" value="0.2986082285642624"/>
														<Node score="0" recordCount="16.0">
															<SimplePredicate field="double(x5)" operator="lessOrEqual" value="0.7456149756908417"/>
															<ScoreDistribution value="0" recordCount="16.0"/>
															<ScoreDistribution value="1" recordCount="0.0"/>
														</Node>
														<Node score="0" recordCount="1.0">
															<SimplePredicate field="double(x9)" operator="lessOrEqual" value="0.21320067532360554"/>
															<ScoreDistribution value="0" recordCount="1.0"/>
															<ScoreDistribution value="1" recordCount="0.0"/>
														</Node>
														<Node score="1" recordCount="3.0">
															<True/>
															<ScoreDistribution value="0" recordCount="0.0"/>
															<ScoreDistribution value="1" recordCount="3.0"/>
														</Node>
													</Node>
													<Node score="1" recordCount="6.0">
														<SimplePredicate field="double(x5)" operator="lessOrEqual" value="0.13349036872386932"/>
														<ScoreDistribution value="0" recordCount="0.0"/>
														<ScoreDistribution value="1" recordCount="6.0"/>
													</Node>
													<Node>
														<SimplePredicate field="double(x7)" operator="lessOrEqual" value="0.9526112973690033"/>
														<Node score="1" recordCount="3.0">
															<SimplePredicate field="double(x4)" operator="lessOrEqual" value="0.31677907705307007"/>
															<ScoreDistribution value="0" recordCount="0.0"/>
															<ScoreDistribution value="1" recordCount="3.0"/>
														</Node>
														<Node>
															<SimplePredicate field="double(x9)" operator="lessOrEqual" value="0.4073670357465744"/>
															<Node>
																<SimplePredicate field="double(x2)" operator="lessOrEqual" value="0.7521531283855438"/>
																<Node>
																	<SimplePredicate field="double(x4)" operator="lessOrEqual" value="0.7291759848594666"/>
																	<Node>
																		<SimplePredicate field="double(x9)" operator="lessOrEqual" value="0.3569524437189102"/>
																		<Node>
																			<SimplePredicate field="double(x4)" operator="lessOrEqual" value="0.6757023930549622"/>
																			<Node score="0" recordCount="10.0">
																				<SimplePredicate field="double(x7)" operator="lessOrEqual" value="0.09656736254692078"/>
																				<ScoreDistribution value="0" recordCount="10.0"/>
																				<ScoreDistribution value="1" recordCount="0.0"/>
																			</Node>
																			<Node>
																				<SimplePredicate field="double(x1)" operator="lessOrEqual" value="0.8404830694198608"/>
																				<Node>
																					<SimplePredicate field="double(x2)" operator="lessOrEqual" value="0.6688457727432251"/>
																					<Node score="0" recordCount="12.0">
																						<SimplePredicate field="double(x9)" operator="lessOrEqual" value="0.26602475345134735"/>
																						<ScoreDistribution value="0" recordCount="12.0"/>
																						<ScoreDistribution value="1" recordCount="0.0"/>
																					</Node>
																					<Node score="1" recordCount="5.0">
																						<True/>
																						<ScoreDistribution value="0" recordCount="0.0"/>
																						<ScoreDistribution value="1" recordCount="5.0"/>
																					</Node>
																				</Node>
																				<Node score="1" recordCount="3.0">
																					<True/>
																					<ScoreDistribution value="0" recordCount="0.0"/>
																					<ScoreDistribution value="1" recordCount="3.0"/>
																				</Node>
																			</Node>
																			<Node score="1" recordCount="4.0">
																				<True/>
																				<ScoreDistribution value="0" recordCount="0.0"/>
																				<ScoreDistribution value="1" recordCount="4.0"/>
																			</Node>
																		</Node>
																		<Node score="1" recordCount="7.0">
																			<True/>
																			<ScoreDistribution value="0" recordCount="0.0"/>
																			<ScoreDistribution value="1" recordCount="7.0"/>
																		</Node>
																	</Node>
																	<Node score="0" recordCount="5.0">
																		<True/>
																		<ScoreDistribution value="0" recordCount="5.0"/>
																		<ScoreDistribution value="1" recordCount="0.0"/>
																	</Node>
																</Node>
																<Node score="0" recordCount="10.0">
																	<True/>
																	<ScoreDistribution value="0" recordCount="10.0"/>
																	<ScoreDistribution value="1" recordCount="0.0"/>
																</Node>
															</Node>
															<Node score="0" recordCount="8.0">
																<True/>
																<ScoreDistribution value="0" recordCount="8.0"/>
																<ScoreDistribution value="1" recordCount="0.0"/>
															</Node>
														</Node>
														<Node score="1" recordCount="3.0">
															<True/>
															<ScoreDistribution value="0" recordCount="0.0"/>
															<ScoreDistribution value="1" recordCount="3.0"/>
														</Node>
													</Node>
													<Node score="1" recordCount="3.0">
														<True/>
														<ScoreDistribution value="0" recordCount="0.0"/>
														<ScoreDistribution value="1" recordCount="3.0"/>
													</Node>
												</Node>
												<Node>
													<SimplePredicate field="double(x4)" operator="lessOrEqual" value="0.9825727939605713"/>
													<Node>
														<SimplePredicate field="double(x7)" operator="lessOrEqual" value="0.841899186372757"/>
														<Node>
															<SimplePredicate field="double(x7)" operator="lessOrEqual" value="0.6004334688186646"/>
															<Node score="0" recordCount="1.0">
																<SimplePredicate field="double(x9)" operator="lessOrEqual" value="0.07220396772027016"/>
																<ScoreDistribution value="0" recordCount="1.0"/>
																<ScoreDistribution value="1" recordCount="0.0"/>
															</Node>
															<Node score="1" recordCount="7.0">
																<SimplePredicate field="double(x5)" operator="lessOrEqual" value="0.8678323924541473"/>
																<ScoreDistribution value="0" recordCount="0.0"/>
																<ScoreDistribution value="1" recordCount="7.0"/>
															</Node>
															<Node score="0" recordCount="2.0">
																<SimplePredicate field="double(x5)" operator="lessOrEqual" value="0.9108274877071381"/>
																<ScoreDistribution value="0" recordCount="2.0"/>
																<ScoreDistribution value="1" recordCount="0.0"/>
															</Node>
															<Node score="1" recordCount="2.0">
																<True/>
																<ScoreDistribution value="0" recordCount="0.0"/>
																<ScoreDistribution value="1" recordCount="2.0"/>
															</Node>
														</Node>
														<Node score="1" recordCount="13.0">
															<True/>
															<ScoreDistribution value="0" recordCount="0.0"/>
															<ScoreDistribution value="1" recordCount="13.0"/>
														</Node>
													</Node>
													<Node score="0" recordCount="2.0">
														<True/>
														<ScoreDistribution value="0" recordCount="2.0"/>
														<ScoreDistribution value="1" recordCount="0.0"/>
													</Node>
												</Node>
												<Node score="0" recordCount="3.0">
													<True/>
													<ScoreDistribution value="0" recordCount="3.0"/>
													<ScoreDistribution value="1" recordCount="0.0"/>
												</Node>
											</Node>
											<Node score="1" recordCount="6.0">
												<True/>
												<ScoreDistribution value="0" recordCount="0.0"/>
												<ScoreDistribution value="1" recordCount="6.0"/>
											</Node>
										</Node>
										<Node score="1" recordCount="7.0">
											<True/>
											<ScoreDistribution value="0" recordCount="0.0"/>
											<ScoreDistribution value="1" recordCount="7.0"/>
										</Node>
									</Node>
									<Node score="0" recordCount="8.0">
										<True/>
										<ScoreDistribution value="0" recordCount="8.0"/>
										<ScoreDistribution value="1" recordCount="0.0"/>
									</Node>
								</Node>
								<Node score="0" recordCount="15.0">
									<SimplePredicate field="double(x5)" operator="lessOrEqual" value="0.06519917771220207"/>
									<ScoreDistribution value="0" recordCount="15.0"/>
									<ScoreDistribution value="1" recordCount="0.0"/>
								</Node>
								<Node>
									<SimplePredicate field="double(x2)" operator="lessOrEqual" value="0.2845305800437927"/>
									<Node>
										<SimplePredicate field="double(x2)" operator="lessOrEqual" value="0.2515561431646347"/>
										<Node>
											<SimplePredicate field="double(x10)" operator="lessOrEqual" value="0.7006235122680664"/>
											<Node>
												<SimplePredicate field="double(x5)" operator="lessOrEqual" value="0.4298674464225769"/>
												<Node>
													<SimplePredicate field="double(x8)" operator="lessOrEqual" value="0.752143383026123"/>
													<Node score="1" recordCount="4.0">
														<SimplePredicate field="double(x3)" operator="lessOrEqual" value="0.487367644906044"/>
														<ScoreDistribution value="0" recordCount="0.0"/>
														<ScoreDistribution value="1" recordCount="4.0"/>
													</Node>
													<Node score="0" recordCount="2.0">
														<True/>
														<ScoreDistribution value="0" recordCount="2.0"/>
														<ScoreDistribution value="1" recordCount="0.0"/>
													</Node>
												</Node>
												<Node score="0" recordCount="3.0">
													<True/>
													<ScoreDistribution value="0" recordCount="3.0"/>
													<ScoreDistribution value="1" recordCount="0.0"/>
												</Node>
											</Node>
											<Node score="1" recordCount="1.0">
												<SimplePredicate field="double(x2)" operator="lessOrEqual" value="0.04648393392562866"/>
												<ScoreDistribution value="0" recordCount="0.0"/>
												<ScoreDistribution value="1" recordCount="1.0"/>
											</Node>
											<Node>
												<SimplePredicate field="double(x4)" operator="lessOrEqual" value="0.14035697653889656"/>
												<Node score="0" recordCount="1.0">
													<SimplePredicate field="double(x6)" operator="lessOrEqual" value="0.4003125876188278"/>
													<ScoreDistribution value="0" recordCount="1.0"/>
													<ScoreDistribution value="1" recordCount="0.0"/>
												</Node>
												<Node score="1" recordCount="1.0">
													<True/>
													<ScoreDistribution value="0" recordCount="0.0"/>
													<ScoreDistribution value="1" recordCount="1.0"/>
												</Node>
											</Node>
											<Node score="0" recordCount="25.0">
												<True/>
												<ScoreDistribution value="0" recordCount="25.0"/>
												<ScoreDistribution value="1" recordCount="0.0"/>
											</Node>
										</Node>
										<Node>
											<SimplePredicate field="double(x5)" operator="lessOrEqual" value="0.4178597182035446"/>
											<Node score="0" recordCount="7.0">
												<SimplePredicate field="double(x7)" operator="lessOrEqual" value="0.8324591815471649"/>
												<ScoreDistribution value="0" recordCount="7.0"/>
												<ScoreDistribution value="1" recordCount="0.0"/>
											</Node>
											<Node score="1" recordCount="1.0">
												<True/>
												<ScoreDistribution value="0" recordCount="0.0"/>
												<ScoreDistribution value="1" recordCount="1.0"/>
											</Node>
										</Node>
										<Node score="1" recordCount="8.0">
											<SimplePredicate field="double(x4)" operator="lessOrEqual" value="0.785330206155777"/>
											<ScoreDistribution value="0" recordCount="0.0"/>
											<ScoreDistribution value="1" recordCount="8.0"/>
										</Node>
										<Node score="0" recordCount="1.0">
											<True/>
											<ScoreDistribution value="0" recordCount="1.0"/>
											<ScoreDistribution value="1" recordCount="0.0"/>
										</Node>
									</Node>
									<Node score="0" recordCount="15.0">
										<True/>
										<ScoreDistribution value="0" recordCount="15.0"/>
										<ScoreDistribution value="1" recordCount="0.0"/>
									</Node>
								</Node>
								<Node>
									<SimplePredicate field="double(x6)" operator="lessOrEqual" value="0.08112375065684319"/>
									<Node>
										<SimplePredicate field="double(x5)" operator="lessOrEqual" value="0.20887154340744019"/>
										<Node score="0" recordCount="1.0">
											<SimplePredicate field="double(x5)" operator="lessOrEqual" value="0.10336953401565552"/>
											<ScoreDistribution value="0" recordCount="1.0"/>
											<ScoreDistribution value="1" recordCount="0.0"/>
										</Node>
										<Node score="1" recordCount="4.0">
											<True/>
											<ScoreDistribution value="0" recordCount="0.0"/>
											<ScoreDistribution value="1" recordCount="4.0"/>
										</Node>
									</Node>
									<Node score="0" recordCount="9.0">
										<SimplePredicate field="double(x10)" operator="lessOrEqual" value="0.4888514280319214"/>
										<ScoreDistribution value="0" recordCount="9.0"/>
										<ScoreDistribution value="1" recordCount="0.0"/>
									</Node>
									<Node>
										<SimplePredicate field="double(x7)" operator="lessOrEqual" value="0.6504567265510559"/>
										<Node score="1" recordCount="2.0">
											<SimplePredicate field="double(x6)" operator="lessOrEqual" value="0.05067724920809269"/>
											<ScoreDistribution value="0" recordCount="0.0"/>
											<ScoreDistribution value="1" recordCount="2.0"/>
										</Node>
										<Node score="0" recordCount="2.0">
											<True/>
											<ScoreDistribution value="0" recordCount="2.0"/>
											<ScoreDistribution value="1" recordCount="0.0"/>
										</Node>
									</Node>
									<Node score="0" recordCount="7.0">
										<True/>
										<ScoreDistribution value="0" recordCount="7.0"/>
										<ScoreDistribution value="1" recordCount="0.0"/>
									</Node>
								</Node>
								<Node>
									<SimplePredicate field="double(x7)" operator="lessOrEqual" value="0.8743505477905273"/>
									<Node score="1" recordCount="9.0">
										<SimplePredicate field="double(x1)" operator="lessOrEqual" value="0.032990386709570885"/>
										<ScoreDistribution value="0" recordCount="0.0"/>
										<ScoreDistribution value="1" recordCount="9.0"/>
									</Node>
									<Node>
										<SimplePredicate field="double(x4)" operator="lessOrEqual" value="0.11753305047750473"/>
										<Node>
											<SimplePredicate field="double(x3)" operator="lessOrEqual" value="0.761934906244278"/>
											<Node>
												<SimplePredicate field="double(x2)" operator="lessOrEqual" value="0.39947018027305603"/>
												<Node score="0" recordCount="1.0">
													<SimplePredicate field="double(x9)" operator="lessOrEqual" value="0.7474722266197205"/>
													<ScoreDistribution value="0" recordCount="1.0"/>
													<ScoreDistribution value="1" recordCount="0.0"/>
												</Node>
												<Node score="1" recordCount="2.0">
													<True/>
													<ScoreDistribution value="0" recordCount="0.0"/>
													<ScoreDistribution value="1" recordCount="2.0"/>
												</Node>
											</Node>
											<Node score="0" recordCount="16.0">
												<SimplePredicate field="double(x9)" operator="lessOrEqual" value="0.9335535168647766"/>
												<ScoreDistribution value="0" recordCount="16.0"/>
												<ScoreDistribution value="1" recordCount="0.0"/>
											</Node>
											<Node score="1" recordCount="1.0">
												<True/>
												<ScoreDistribution value="0" recordCount="0.0"/>
												<ScoreDistribution value="1" recordCount="1.0"/>
											</Node>
										</Node>
										<Node score="1" recordCount="2.0">
											<True/>
											<ScoreDistribution value="0" recordCount="0.0"/>
											<ScoreDistribution value="1" recordCount="2.0"/>
										</Node>
									</Node>
									<Node>
										<SimplePredicate field="double(x2)" operator="lessOrEqual" value="0.9152621328830719"/>
										<Node>
											<SimplePredicate field="double(x4)" operator="lessOrEqual" value="0.9019325077533722"/>
											<Node>
												<SimplePredicate field="double(x10)" operator="lessOrEqual" value="0.8680443465709686"/>
												<Node>
													<SimplePredicate field="double(x7)" operator="lessOrEqual" value="0.14761988073587418"/>
													<Node score="1" recordCount="3.0">
														<SimplePredicate field="double(x7)" operator="lessOrEqual" value="0.0947168730199337"/>
														<ScoreDistribution value="0" recordCount="0.0"/>
														<ScoreDistribution value="1" recordCount="3.0"/>
													</Node>
													<Node score="0" recordCount="6.0">
														<True/>
														<ScoreDistribution value="0" recordCount="6.0"/>
														<ScoreDistribution value="1" recordCount="0.0"/>
													</Node>
												</Node>
												<Node>
													<SimplePredicate field="double(x6)" operator="lessOrEqual" value="0.5714297294616699"/>
													<Node>
														<SimplePredicate field="double(x9)" operator="lessOrEqual" value="0.8822913467884064"/>
														<Node>
															<SimplePredicate field="double(x7)" operator="lessOrEqual" value="0.748049408197403"/>
															<Node>
																<SimplePredicate field="double(x5)" operator="lessOrEqual" value="0.5596120953559875"/>
																<Node score="1" recordCount="2.0">
																	<SimplePredicate field="double(x6)" operator="lessOrEqual" value="0.1903930827975273"/>
																	<ScoreDistribution value="0" recordCount="0.0"/>
																	<ScoreDistribution value="1" recordCount="2.0"/>
																</Node>
																<Node score="0" recordCount="6.0">
																	<SimplePredicate field="double(x9)" operator="lessOrEqual" value="0.8016811013221741"/>
																	<ScoreDistribution value="0" recordCount="6.0"/>
																	<ScoreDistribution value="1" recordCount="0.0"/>
																</Node>
																<Node score="0" recordCount="1.0">
																	<SimplePredicate field="double(x3)" operator="lessOrEqual" value="0.8058814704418182"/>
																	<ScoreDistribution value="0" recordCount="1.0"/>
																	<ScoreDistribution value="1" recordCount="0.0"/>
																</Node>
																<Node score="1" recordCount="1.0">
																	<True/>
																	<ScoreDistribution value="0" recordCount="0.0"/>
																	<ScoreDistribution value="1" recordCount="1.0"/>
																</Node>
															</Node>
															<Node>
																<SimplePredicate field="double(x1)" operator="lessOrEqual" value="0.35132019221782684"/>
																<Node score="0" recordCount="2.0">
																	<SimplePredicate field="double(x3)" operator="lessOrEqual" value="0.8458501398563385"/>
																	<ScoreDistribution value="0" recordCount="2.0"/>
																	<ScoreDistribution value="1" recordCount="0.0"/>
																</Node>
																<Node score="1" recordCount="2.0">
																	<True/>
																	<ScoreDistribution value="0" recordCount="0.0"/>
																	<ScoreDistribution value="1" recordCount="2.0"/>
																</Node>
															</Node>
															<Node score="1" recordCount="10.0">
																<True/>
																<ScoreDistribution value="0" recordCount="0.0"/>
																<ScoreDistribution value="1" recordCount="10.0"/>
															</Node>
														</Node>
														<Node score="1" recordCount="8.0">
															<True/>
															<ScoreDistribution value="0" recordCount="0.0"/>
															<ScoreDistribution value="1" recordCount="8.0"/>
														</Node>
													</Node>
													<Node score="1" recordCount="12.0">
														<True/>
														<ScoreDistribution value="0" recordCount="0.0"/>
														<ScoreDistribution value="1" recordCount="12.0"/>
													</Node>
												</Node>
												<Node score="0" recordCount="2.0">
													<True/>
													<ScoreDistribution value="0" recordCount="2.0"/>
													<ScoreDistribution value="1" recordCount="0.0"/>
												</Node>
											</Node>
											<Node score="0" recordCount="6.0">
												<SimplePredicate field="double(x4)" operator="lessOrEqual" value="0.6545763313770294"/>
												<ScoreDistribution value="0" recordCount="6.0"/>
												<ScoreDistribution value="1" recordCount="0.0"/>
											</Node>
											<Node score="1" recordCount="1.0">
												<True/>
												<ScoreDistribution value="0" recordCount="0.0"/>
												<ScoreDistribution value="1" recordCount="1.0"/>
											</Node>
										</Node>
										<Node score="1" recordCount="1.0">
											<SimplePredicate field="double(x9)" operator="lessOrEqual" value="0.6790249049663544"/>
											<ScoreDistribution value="0" recordCount="0.0"/>
											<ScoreDistribution value="1" recordCount="1.0"/>
										</Node>
										<Node score="0" recordCount="7.0">
											<True/>
											<ScoreDistribution value="0" recordCount="7.0"/>
											<ScoreDistribution value="1" recordCount="0.0"/>
										</Node>
									</Node>
									<Node score="1" recordCount="1.0">
										<SimplePredicate field="double(x10)" operator="lessOrEqual" value="0.1667301319539547"/>
										<ScoreDistribution value="0" recordCount="0.0"/>
										<ScoreDistribution value="1" recordCount="1.0"/>
									</Node>
									<Node score="0" recordCount="14.0">
										<True/>
										<ScoreDistribution value="0" recordCount="14.0"/>
										<ScoreDistribution value="1" recordCount="0.0"/>
									</Node>
								</Node>
								<Node>
									<SimplePredicate field="double(x2)" operator="lessOrEqual" value="0.8581639230251312"/>
									<Node score="0" recordCount="1.0">
										<SimplePredicate field="double(x3)" operator="lessOrEqual" value="0.15733741596341133"/>
										<ScoreDistribution value="0" recordCount="1.0"/>
										<ScoreDistribution value="1" recordCount="0.0"/>
									</Node>
									<Node score="1" recordCount="11.0">
										<True/>
										<ScoreDistribution value="0" recordCount="0.0"/>
										<ScoreDistribution value="1" recordCount="11.0"/>
									</Node>
								</Node>
								<Node score="0" recordCount="1.0">
									<True/>
									<ScoreDistribution value="0" recordCount="1.0"/>
									<ScoreDistribution value="1" recordCount="0.0"/>
								</Node>
							</Node>
							<Node>
								<SimplePredicate field="double(x2)" operator="lessOrEqual" value="0.46559181809425354"/>
								<Node>
									<SimplePredicate field="double(x4)" operator="lessOrEqual" value="0.15205686539411545"/>
									<Node>
										<SimplePredicate field="double(x6)" operator="lessOrEqual" value="0.9770427644252777"/>
										<Node>
											<SimplePredicate field="double(x4)" operator="lessOrEqual" value="0.02845738362520933"/>
											<Node score="1" recordCount="1.0">
												<SimplePredicate field="double(x1)" operator="lessOrEqual" value="0.46047481894493103"/>
												<ScoreDistribution value="0" recordCount="0.0"/>
												<ScoreDistribution value="1" recordCount="1.0"/>
											</Node>
											<Node score="0" recordCount="2.0">
												<True/>
												<ScoreDistribution value="0" recordCount="2.0"/>
												<ScoreDistribution value="1" recordCount="0.0"/>
											</Node>
										</Node>
										<Node score="1" recordCount="22.0">
											<SimplePredicate field="double(x9)" operator="lessOrEqual" value="0.9243172705173492"/>
											<ScoreDistribution value="0" recordCount="0.0"/>
											<ScoreDistribution value="1" recordCount="22.0"/>
										</Node>
										<Node score="0" recordCount="1.0">
											<True/>
											<ScoreDistribution value="0" recordCount="1.0"/>
											<ScoreDistribution value="1" recordCount="0.0"/>
										</Node>
									</Node>
									<Node score="0" recordCount="1.0">
										<True/>
										<ScoreDistribution value="0" recordCount="1.0"/>
										<ScoreDistribution value="1" recordCount="0.0"/>
									</Node>
								</Node>
								<Node>
									<SimplePredicate field="double(x5)" operator="lessOrEqual" value="0.833467572927475"/>
									<Node score="0" recordCount="10.0">
										<SimplePredicate field="double(x1)" operator="lessOrEqual" value="0.0868203230202198"/>
										<ScoreDistribution value="0" recordCount="10.0"/>
										<ScoreDistribution value="1" recordCount="0.0"/>
									</Node>
									<Node>
										<SimplePredicate field="double(x9)" operator="lessOrEqual" value="0.6144886314868927"/>
										<Node>
											<SimplePredicate field="double(x3)" operator="lessOrEqual" value="0.9325128793716431"/>
											<Node>
												<SimplePredicate field="double(x6)" operator="lessOrEqual" value="0.7779355645179749"/>
												<Node score="1" recordCount="14.0">
													<SimplePredicate field="double(x5)" operator="lessOrEqual" value="0.7197937369346619"/>
													<ScoreDistribution value="0" recordCount="0.0"/>
													<ScoreDistribution value="1" recordCount="14.0"/>
												</Node>
												<Node score="0" recordCount="2.0">
													<True/>
													<ScoreDistribution value="0" recordCount="2.0"/>
													<ScoreDistribution value="1" recordCount="0.0"/>
												</Node>
											</Node>
											<Node>
												<SimplePredicate field="double(x4)" operator="lessOrEqual" value="0.20622070133686066"/>
												<Node score="1" recordCount="3.0">
													<SimplePredicate field="double(x2)" operator="lessOrEqual" value="0.1700901910662651"/>
													<ScoreDistribution value="0" recordCount="0.0"/>
													<ScoreDistribution value="1" recordCount="3.0"/>
												</Node>
												<Node score="0" recordCount="2.0">
													<True/>
													<ScoreDistribution value="0" recordCount="2.0"/>
													<ScoreDistribution value="1" recordCount="0.0"/>
												</Node>
											</Node>
											<Node score="0" recordCount="14.0">
												<SimplePredicate field="double(x6)" operator="lessOrEqual" value="0.9487696588039398"/>
												<ScoreDistribution value="0" recordCount="14.0"/>
												<ScoreDistribution value="1" recordCount="0.0"/>
											</Node>
											<Node score="1" recordCount="2.0">
												<True/>
												<ScoreDistribution value="0" recordCount="0.0"/>
												<ScoreDistribution value="1" recordCount="2.0"/>
											</Node>
										</Node>
										<Node score="1" recordCount="5.0">
											<True/>
											<ScoreDistribution value="0" recordCount="0.0"/>
											<ScoreDistribution value="1" recordCount="5.0"/>
										</Node>
									</Node>
									<Node>
										<SimplePredicate field="double(x4)" operator="lessOrEqual" value="0.7548053860664368"/>
										<Node score="0" recordCount="20.0">
											<SimplePredicate field="double(x2)" operator="lessOrEqual" value="0.4424884468317032"/>
											<ScoreDistribution value="0" recordCount="20.0"/>
											<ScoreDistribution value="1" recordCount="0.0"/>
										</Node>
										<Node score="1" recordCount="1.0">
											<SimplePredicate field="double(x10)" operator="lessOrEqual" value="0.49119970202445984"/>
											<ScoreDistribution value="0" recordCount="0.0"/>
											<ScoreDistribution value="1" recordCount="1.0"/>
										</Node>
										<Node score="0" recordCount="4.0">
											<True/>
											<ScoreDistribution value="0" recordCount="4.0"/>
											<ScoreDistribution value="1" recordCount="0.0"/>
										</Node>
									</Node>
									<Node score="1" recordCount="5.0">
										<True/>
										<ScoreDistribution value="0" recordCount="0.0"/>
										<ScoreDistribution value="1" recordCount="5.0"/>
									</Node>
								</Node>
								<Node score="1" recordCount="6.0">
									<True/>
									<ScoreDistribution value="0" recordCount="0.0"/>
									<ScoreDistribution value="1" recordCount="6.0"/>
								</Node>
							</Node>
							<Node score="0" recordCount="5.0">
								<SimplePredicate field="double(x4)" operator="lessOrEqual" value="0.011384392622858286"/>
								<ScoreDistribution value="0" recordCount="5.0"/>
								<ScoreDistribution value="1" recordCount="0.0"/>
							</Node>
							<Node>
								<SimplePredicate field="double(x10)" operator="lessOrEqual" value="0.6054461002349854"/>
								<Node>
									<SimplePredicate field="double(x8)" operator="lessOrEqual" value="0.5584645867347717"/>
									<Node score="1" recordCount="42.0">
										<SimplePredicate field="double(x7)" operator="lessOrEqual" value="0.984382838010788"/>
										<ScoreDistribution value="0" recordCount="0.0"/>
										<ScoreDistribution value="1" recordCount="42.0"/>
									</Node>
									<Node score="0" recordCount="1.0">
										<True/>
										<ScoreDistribution value="0" recordCount="1.0"/>
										<ScoreDistribution value="1" recordCount="0.0"/>
									</Node>
								</Node>
								<Node>
									<SimplePredicate field="double(x5)" operator="lessOrEqual" value="0.7193227708339691"/>
									<Node>
										<SimplePredicate field="double(x4)" operator="lessOrEqual" value="0.9619711339473724"/>
										<Node score="0" recordCount="2.0">
											<SimplePredicate field="double(x2)" operator="lessOrEqual" value="0.5224470496177673"/>
											<ScoreDistribution value="0" recordCount="2.0"/>
											<ScoreDistribution value="1" recordCount="0.0"/>
										</Node>
										<Node score="0" recordCount="2.0">
											<SimplePredicate field="double(x9)" operator="lessOrEqual" value="0.1256663277745247"/>
											<ScoreDistribution value="0" recordCount="2.0"/>
											<ScoreDistribution value="1" recordCount="0.0"/>
										</Node>
										<Node score="1" recordCount="13.0">
											<SimplePredicate field="double(x1)" operator="lessOrEqual" value="0.637522965669632"/>
											<ScoreDistribution value="0" recordCount="0.0"/>
											<ScoreDistribution value="1" recordCount="13.0"/>
										</Node>
										<Node>
											<SimplePredicate field="double(x7)" operator="lessOrEqual" value="0.6138043999671936"/>
											<Node>
												<SimplePredicate field="double(x6)" operator="lessOrEqual" value="0.8101517260074615"/>
												<Node score="0" recordCount="1.0">
													<SimplePredicate field="double(x6)" operator="lessOrEqual" value="0.6217531263828278"/>
													<ScoreDistribution value="0" recordCount="1.0"/>
													<ScoreDistribution value="1" recordCount="0.0"/>
												</Node>
												<Node score="1" recordCount="3.0">
													<True/>
													<ScoreDistribution value="0" recordCount="0.0"/>
													<ScoreDistribution value="1" recordCount="3.0"/>
												</Node>
											</Node>
											<Node score="0" recordCount="2.0">
												<True/>
												<ScoreDistribution value="0" recordCount="2.0"/>
												<ScoreDistribution value="1" recordCount="0.0"/>
											</Node>
										</Node>
										<Node score="1" recordCount="5.0">
											<True/>
											<ScoreDistribution value="0" recordCount="0.0"/>
											<ScoreDistribution value="1" recordCount="5.0"/>
										</Node>
									</Node>
									<Node score="0" recordCount="3.0">
										<True/>
										<ScoreDistribution value="0" recordCount="3.0"/>
										<ScoreDistribution value="1" recordCount="0.0"/>
									</Node>
								</Node>
								<Node score="1" recordCount="12.0">
									<True/>
									<ScoreDistribution value="0" recordCount="0.0"/>
									<ScoreDistribution value="1" recordCount="12.0"/>
								</Node>
							</Node>
							<Node>
								<SimplePredicate field="double(x1)" operator="lessOrEqual" value="0.3077396750450134"/>
								<Node score="1" recordCount="4.0">
									<SimplePredicate field="double(x8)" operator="lessOrEqual" value="0.09064747765660286"/>
									<ScoreDistribution value="0" recordCount="0.0"/>
									<ScoreDistribution value="1" recordCount="4.0"/>
								</Node>
								<Node score="1" recordCount="3.0">
									<SimplePredicate field="double(x2)" operator="lessOrEqual" value="0.606149435043335"/>
									<ScoreDistribution value="0" recordCount="0.0"/>
									<ScoreDistribution value="1" recordCount="3.0"/>
								</Node>
								<Node>
									<SimplePredicate field="double(x4)" operator="lessOrEqual" value="0.5685456991195679"/>
									<Node score="1" recordCount="1.0">
										<SimplePredicate field="double(x9)" operator="lessOrEqual" value="0.30708760023117065"/>
										<ScoreDistribution value="0" recordCount="0.0"/>
										<ScoreDistribution value="1" recordCount="1.0"/>
									</Node>
									<Node score="0" recordCount="2.0">
										<True/>
										<ScoreDistribution value="0" recordCount="2.0"/>
										<ScoreDistribution value="1" recordCount="0.0"/>
									</Node>
								</Node>
								<Node score="0" recordCount="13.0">
									<True/>
									<ScoreDistribution value="0" recordCount="13.0"/>
									<ScoreDistribution value="1" recordCount="0.0"/>
								</Node>
							</Node>
							<Node score="1" recordCount="14.0">
								<SimplePredicate field="double(x5)" operator="lessOrEqual" value="0.30398277938365936"/>
								<ScoreDistribution value="0" recordCount="0.0"/>
								<ScoreDistribution value="1" recordCount="14.0"/>
							</Node>
							<Node score="0" recordCount="6.0">
								<SimplePredicate field="double(x9)" operator="lessOrEqual" value="0.34350842237472534"/>
								<ScoreDistribution value="0" recordCount="6.0"/>
								<ScoreDistribution value="1" recordCount="0.0"/>
							</Node>
							<Node score="1" recordCount="10.0">
								<SimplePredicate field="double(x9)" operator="lessOrEqual" value="0.6691895127296448"/>
								<ScoreDistribution value="0" recordCount="0.0"/>
								<ScoreDistribution value="1" recordCount="10.0"/>
							</Node>
							<Node score="0" recordCount="2.0">
								<SimplePredicate field="double(x9)" operator="lessOrEqual" value="0.7816366851329803"/>
								<ScoreDistribution value="0" recordCount="2.0"/>
								<ScoreDistribution value="1" recordCount="0.0"/>
							</Node>
							<Node score="1" recordCount="2.0">
								<True/>
								<ScoreDistribution value="0" recordCount="0.0"/>
								<ScoreDistribution value="1" recordCount="2.0"/>
							</Node>
						</Node>
						<Node score="0" recordCount="10.0">
							<True/>
							<ScoreDistribution value="0" recordCount="10.0"/>
							<ScoreDistribution value="1" recordCount="0.0"/>
						</Node>
					</Node>
				</TreeModel>
			</Segment>
			<Segment id="3">
				<True/>
				<TreeModel functionName="classification" missingValueStrategy="nullPrediction">
					<MiningSchema>
						<MiningField name="double(x2)"/>
						<MiningField name="double(x6)"/>
						<MiningField name="double(x7)"/>
						<MiningField name="double(x10)"/>
						<MiningField name="double(x5)"/>
						<MiningField name="double(x9)"/>
						<MiningField name="double(x1)"/>
						<MiningField name="double(x8)"/>
						<MiningField name="double(x4)"/>
						<MiningField name="double(x3)"/>
					</MiningSchema>
					<Node>
						<True/>
						<Node>
							<SimplePredicate field="double(x9)" operator="lessOrEqual" value="0.5207685828208923"/>
							<Node>
								<SimplePredicate field="double(x8)" operator="lessOrEqual" value="0.8133988976478577"/>
								<Node>
									<SimplePredicate field="double(x6)" operator="lessOrEqual" value="0.9273501634597778"/>
									<Node score="0" recordCount="9.0">
										<SimplePredicate field="double(x2)" operator="lessOrEqual" value="0.01950701419264078"/>
										<ScoreDistribution value="0" recordCount="9.0"/>
										<ScoreDistribution value="1" recordCount="0.0"/>
									</Node>
									<Node>
										<SimplePredicate field="double(x6)" operator="lessOrEqual" value="0.04372757486999035"/>
										<Node>
											<SimplePredicate field="double(x4)" operator="lessOrEqual" value="0.2931380048394203"/>
											<Node score="1" recordCount="3.0">
												<SimplePredicate field="double(x2)" operator="lessOrEqual" value="0.17071540094912052"/>
												<ScoreDistribution value="0" recordCount="0.0"/>
												<ScoreDistribution value="1" recordCount="3.0"/>
											</Node>
											<Node score="0" recordCount="3.0">
												<True/>
												<ScoreDistribution value="0" recordCount="3.0"/>
												<ScoreDistribution value="1" recordCount="0.0"/>
											</Node>
										</Node>
										<Node score="0" recordCount="8.0">
											<True/>
											<ScoreDistribution value="0" recordCount="8.0"/>
											<ScoreDistribution value="1" recordCount="0.0"/>
										</Node>
									</Node>
									<Node>
										<SimplePredicate field="double(x3)" operator="lessOrEqual" value="0.8185219168663025"/>
										<Node>
											<SimplePredicate field="double(x10)" operator="lessOrEqual" value="0.43081215023994446"/>
											<Node>
												<SimplePredicate field="double(x10)" operator="lessOrEqual" value="0.17227891087532043"/>
												<Node score="0" recordCount="10.0">
													<SimplePredicate field="double(x2)" operator="lessOrEqual" value="0.27013566344976425"/>
													<ScoreDistribution value="0" recordCount="10.0"/>
													<ScoreDistribution value="1" recordCount="0.0"/>
												</Node>
												<Node>
													<SimplePredicate field="double(x3)" operator="lessOrEqual" value="0.5102518498897552"/>
													<Node score="1" recordCount="5.0">
														<SimplePredicate field="double(x6)" operator="lessOrEqual" value="0.27175603806972504"/>
														<ScoreDistribution value="0" recordCount="0.0"/>
														<ScoreDistribution value="1" recordCount="5.0"/>
													</Node>
													<Node>
														<SimplePredicate field="double(x1)" operator="lessOrEqual" value="0.8877723515033722"/>
														<Node score="0" recordCount="2.0">
															<SimplePredicate field="double(x3)" operator="lessOrEqual" value="0.24239806830883026"/>
															<ScoreDistribution value="0" recordCount="2.0"/>
															<ScoreDistribution value="1" recordCount="0.0"/>
														</Node>
														<Node score="1" recordCount="4.0">
															<True/>
															<ScoreDistribution value="0" recordCount="0.0"/>
															<ScoreDistribution value="1" recordCount="4.0"/>
														</Node>
													</Node>
													<Node score="0" recordCount="4.0">
														<True/>
														<ScoreDistribution value="0" recordCount="4.0"/>
														<ScoreDistribution value="1" recordCount="0.0"/>
													</Node>
												</Node>
												<Node score="1" recordCount="10.0">
													<True/>
													<ScoreDistribution value="0" recordCount="0.0"/>
													<ScoreDistribution value="1" recordCount="10.0"/>
												</Node>
											</Node>
											<Node>
												<SimplePredicate field="double(x1)" operator="lessOrEqual" value="0.8946004807949066"/>
												<Node>
													<SimplePredicate field="double(x5)" operator="lessOrEqual" value="0.8676203489303589"/>
													<Node score="0" recordCount="34.0">
														<SimplePredicate field="double(x6)" operator="lessOrEqual" value="0.5510374009609222"/>
														<ScoreDistribution value="0" recordCount="34.0"/>
														<ScoreDistribution value="1" recordCount="0.0"/>
													</Node>
													<Node score="1" recordCount="2.0">
														<SimplePredicate field="double(x6)" operator="lessOrEqual" value="0.67467400431633"/>
														<ScoreDistribution value="0" recordCount="0.0"/>
														<ScoreDistribution value="1" recordCount="2.0"/>
													</Node>
													<Node score="0" recordCount="5.0">
														<True/>
														<ScoreDistribution value="0" recordCount="5.0"/>
														<ScoreDistribution value="1" recordCount="0.0"/>
													</Node>
												</Node>
												<Node score="1" recordCount="1.0">
													<True/>
													<ScoreDistribution value="0" recordCount="0.0"/>
													<ScoreDistribution value="1" recordCount="1.0"/>
												</Node>
											</Node>
											<Node score="1" recordCount="2.0">
												<True/>
												<ScoreDistribution value="0" recordCount="0.0"/>
												<ScoreDistribution value="1" recordCount="2.0"/>
											</Node>
										</Node>
										<Node>
											<SimplePredicate field="double(x1)" operator="lessOrEqual" value="0.11681191623210907"/>
											<Node score="1" recordCount="1.0">
												<SimplePredicate field="double(x10)" operator="lessOrEqual" value="0.6076124310493469"/>
												<ScoreDistribution value="0" recordCount="0.0"/>
												<ScoreDistribution value="1" recordCount="1.0"/>
											</Node>
											<Node score="0" recordCount="7.0">
												<True/>
												<ScoreDistribution value="0" recordCount="7.0"/>
												<ScoreDistribution value="1" recordCount="0.0"/>
											</Node>
										</Node>
										<Node>
											<SimplePredicate field="double(x4)" operator="lessOrEqual" value="0.272623673081398"/>
											<Node>
												<SimplePredicate field="double(x4)" operator="lessOrEqual" value="0.07764700055122375"/>
												<Node score="0" recordCount="1.0">
													<SimplePredicate field="double(x5)" operator="lessOrEqual" value="0.24943622946739197"/>
													<ScoreDistribution value="0" recordCount="1.0"/>
													<ScoreDistribution value="1" recordCount="0.0"/>
												</Node>
												<Node score="1" recordCount="6.0">
													<SimplePredicate field="double(x2)" operator="lessOrEqual" value="0.8181574642658234"/>
													<ScoreDistribution value="0" recordCount="0.0"/>
													<ScoreDistribution value="1" recordCount="6.0"/>
												</Node>
												<Node score="0" recordCount="2.0">
													<SimplePredicate field="double(x10)" operator="lessOrEqual" value="0.933952122926712"/>
													<ScoreDistribution value="0" recordCount="2.0"/>
													<ScoreDistribution value="1" recordCount="0.0"/>
												</Node>
												<Node score="1" recordCount="1.0">
													<True/>
													<ScoreDistribution value="0" recordCount="0.0"/>
													<ScoreDistribution value="1" recordCount="1.0"/>
												</Node>
											</Node>
											<Node score="1" recordCount="21.0">
												<True/>
												<ScoreDistribution value="0" recordCount="0.0"/>
												<ScoreDistribution value="1" recordCount="21.0"/>
											</Node>
										</Node>
										<Node score="1" recordCount="8.0">
											<SimplePredicate field="double(x6)" operator="lessOrEqual" value="0.10264372825622559"/>
											<ScoreDistribution value="0" recordCount="0.0"/>
											<ScoreDistribution value="1" recordCount="8.0"/>
										</Node>
										<Node score="1" recordCount="11.0">
											<SimplePredicate field="double(x9)" operator="lessOrEqual" value="0.04875553958117962"/>
											<ScoreDistribution value="0" recordCount="0.0"/>
											<ScoreDistribution value="1" recordCount="11.0"/>
										</Node>
										<Node>
											<SimplePredicate field="double(x8)" operator="lessOrEqual" value="0.6848179399967194"/>
											<Node score="1" recordCount="6.0">
												<SimplePredicate field="double(x5)" operator="lessOrEqual" value="0.16033098846673965"/>
												<ScoreDistribution value="0" recordCount="0.0"/>
												<ScoreDistribution value="1" recordCount="6.0"/>
											</Node>
											<Node>
												<SimplePredicate field="double(x1)" operator="lessOrEqual" value="0.5300637781620026"/>
												<Node score="0" recordCount="10.0">
													<SimplePredicate field="double(x8)" operator="lessOrEqual" value="0.5835505723953247"/>
													<ScoreDistribution value="0" recordCount="10.0"/>
													<ScoreDistribution value="1" recordCount="0.0"/>
												</Node>
												<Node score="1" recordCount="3.0">
													<SimplePredicate field="double(x5)" operator="lessOrEqual" value="0.5136354714632034"/>
													<ScoreDistribution value="0" recordCount="0.0"/>
													<ScoreDistribution value="1" recordCount="3.0"/>
												</Node>
												<Node score="0" recordCount="1.0">
													<True/>
													<ScoreDistribution value="0" recordCount="1.0"/>
													<ScoreDistribution value="1" recordCount="0.0"/>
												</Node>
											</Node>
											<Node>
												<SimplePredicate field="double(x4)" operator="lessOrEqual" value="0.8118541836738586"/>
												<Node>
													<SimplePredicate field="double(x7)" operator="lessOrEqual" value="0.8982305228710175"/>
													<Node>
														<SimplePredicate field="double(x8)" operator="lessOrEqual" value="0.5464527606964111"/>
														<Node score="1" recordCount="2.0">
															<SimplePredicate field="double(x1)" operator="lessOrEqual" value="0.6243091523647308"/>
															<ScoreDistribution value="0" recordCount="0.0"/>
															<ScoreDistribution value="1" recordCount="2.0"/>
														</Node>
														<Node score="0" recordCount="8.0">
															<SimplePredicate field="double(x2)" operator="lessOrEqual" value="0.9490724205970764"/>
															<ScoreDistribution value="0" recordCount="8.0"/>
															<ScoreDistribution value="1" recordCount="0.0"/>
														</Node>
														<Node score="1" recordCount="1.0">
															<True/>
															<ScoreDistribution value="0" recordCount="0.0"/>
															<ScoreDistribution value="1" recordCount="1.0"/>
														</Node>
													</Node>
													<Node score="1" recordCount="2.0">
														<True/>
														<ScoreDistribution value="0" recordCount="0.0"/>
														<ScoreDistribution value="1" recordCount="2.0"/>
													</Node>
												</Node>
												<Node score="1" recordCount="4.0">
													<True/>
													<ScoreDistribution value="0" recordCount="0.0"/>
													<ScoreDistribution value="1" recordCount="4.0"/>
												</Node>
											</Node>
											<Node score="1" recordCount="7.0">
												<True/>
												<ScoreDistribution value="0" recordCount="0.0"/>
												<ScoreDistribution value="1" recordCount="7.0"/>
											</Node>
										</Node>
										<Node score="0" recordCount="6.0">
											<True/>
											<ScoreDistribution value="0" recordCount="6.0"/>
											<ScoreDistribution value="1" recordCount="0.0"/>
										</Node>
									</Node>
									<Node>
										<SimplePredicate field="double(x5)" operator="lessOrEqual" value="0.9443110525608063"/>
										<Node>
											<SimplePredicate field="double(x10)" operator="lessOrEqual" value="0.8908483386039734"/>
											<Node>
												<SimplePredicate field="double(x6)" operator="lessOrEqual" value="0.7825344800949097"/>
												<Node score="1" recordCount="10.0">
													<SimplePredicate field="double(x2)" operator="lessOrEqual" value="0.2788834422826767"/>
													<ScoreDistribution value="0" recordCount="0.0"/>
													<ScoreDistribution value="1" recordCount="10.0"/>
												</Node>
												<Node>
													<SimplePredicate field="double(x9)" operator="lessOrEqual" value="0.3907696455717087"/>
													<Node>
														<SimplePredicate field="double(x1)" operator="lessOrEqual" value="0.8807206451892853"/>
														<Node score="0" recordCount="4.0">
															<SimplePredicate field="double(x6)" operator="lessOrEqual" value="0.4613110274076462"/>
															<ScoreDistribution value="0" recordCount="4.0"/>
															<ScoreDistribution value="1" recordCount="0.0"/>
														</Node>
														<Node score="0" recordCount="2.0">
															<SimplePredicate field="double(x2)" operator="lessOrEqual" value="0.5754097998142242"/>
															<ScoreDistribution value="0" recordCount="2.0"/>
															<ScoreDistribution value="1" recordCount="0.0"/>
														</Node>
														<Node score="1" recordCount="3.0">
															<True/>
															<ScoreDistribution value="0" recordCount="0.0"/>
															<ScoreDistribution value="1" recordCount="3.0"/>
														</Node>
													</Node>
													<Node score="1" recordCount="5.0">
														<True/>
														<ScoreDistribution value="0" recordCount="0.0"/>
														<ScoreDistribution value="1" recordCount="5.0"/>
													</Node>
												</Node>
												<Node score="1" recordCount="5.0">
													<True/>
													<ScoreDistribution value="0" recordCount="0.0"/>
													<ScoreDistribution value="1" recordCount="5.0"/>
												</Node>
											</Node>
											<Node score="1" recordCount="10.0">
												<True/>
												<ScoreDistribution value="0" recordCount="0.0"/>
												<ScoreDistribution value="1" recordCount="10.0"/>
											</Node>
										</Node>
										<Node score="1" recordCount="11.0">
											<True/>
											<ScoreDistribution value="0" recordCount="0.0"/>
											<ScoreDistribution value="1" recordCount="11.0"/>
										</Node>
									</Node>
									<Node score="0" recordCount="1.0">
										<True/>
										<ScoreDistribution value="0" recordCount="1.0"/>
										<ScoreDistribution value="1" recordCount="0.0"/>
									</Node>
								</Node>
								<Node>
									<SimplePredicate field="double(x9)" operator="lessOrEqual" value="0.3751780688762665"/>
									<Node score="1" recordCount="1.0">
										<SimplePredicate field="double(x5)" operator="lessOrEqual" value="0.24070389568805695"/>
										<ScoreDistribution value="0" recordCount="0.0"/>
										<ScoreDistribution value="1" recordCount="1.0"/>
									</Node>
									<Node score="0" recordCount="21.0">
										<True/>
										<ScoreDistribution value="0" recordCount="21.0"/>
										<ScoreDistribution value="1" recordCount="0.0"/>
									</Node>
								</Node>
								<Node score="1" recordCount="2.0">
									<True/>
									<ScoreDistribution value="0" recordCount="0.0"/>
									<ScoreDistribution value="1" recordCount="2.0"/>
								</Node>
							</Node>
							<Node score="1" recordCount="11.0">
								<SimplePredicate field="double(x6)" operator="lessOrEqual" value="0.09827097877860069"/>
								<ScoreDistribution value="0" recordCount="0.0"/>
								<ScoreDistribution value="1" recordCount="11.0"/>
							</Node>
							<Node>
								<SimplePredicate field="double(x7)" operator="lessOrEqual" value="0.929841548204422"/>
								<Node>
									<SimplePredicate field="double(x2)" operator="lessOrEqual" value="0.6200368404388428"/>
									<Node>
										<SimplePredicate field="double(x8)" operator="lessOrEqual" value="0.9335651993751526"/>
										<Node>
											<SimplePredicate field="double(x5)" operator="lessOrEqual" value="0.953957587480545"/>
											<Node>
												<SimplePredicate field="double(x10)" operator="lessOrEqual" value="0.57942333817482"/>
												<Node>
													<SimplePredicate field="double(x1)" operator="lessOrEqual" value="0.743722677230835"/>
													<Node score="1" recordCount="7.0">
														<SimplePredicate field="double(x10)" operator="lessOrEqual" value="0.4965885877609253"/>
														<ScoreDistribution value="0" recordCount="0.0"/>
														<ScoreDistribution value="1" recordCount="7.0"/>
													</Node>
													<Node score="0" recordCount="1.0">
														<True/>
														<ScoreDistribution value="0" recordCount="1.0"/>
														<ScoreDistribution value="1" recordCount="0.0"/>
													</Node>
												</Node>
												<Node score="0" recordCount="2.0">
													<True/>
													<ScoreDistribution value="0" recordCount="2.0"/>
													<ScoreDistribution value="1" recordCount="0.0"/>
												</Node>
											</Node>
											<Node score="1" recordCount="14.0">
												<True/>
												<ScoreDistribution value="0" recordCount="0.0"/>
												<ScoreDistribution value="1" recordCount="14.0"/>
											</Node>
										</Node>
										<Node score="0" recordCount="2.0">
											<True/>
											<ScoreDistribution value="0" recordCount="2.0"/>
											<ScoreDistribution value="1" recordCount="0.0"/>
										</Node>
									</Node>
									<Node score="1" recordCount="19.0">
										<True/>
										<ScoreDistribution value="0" recordCount="0.0"/>
										<ScoreDistribution value="1" recordCount="19.0"/>
									</Node>
								</Node>
								<Node score="0" recordCount="4.0">
									<SimplePredicate field="double(x2)" operator="lessOrEqual" value="0.7149216532707214"/>
									<ScoreDistribution value="0" recordCount="4.0"/>
									<ScoreDistribution value="1" recordCount="0.0"/>
								</Node>
								<Node score="0" recordCount="1.0">
									<SimplePredicate field="double(x7)" operator="lessOrEqual" value="0.10276591405272484"/>
									<ScoreDistribution value="0" recordCount="1.0"/>
									<ScoreDistribution value="1" recordCount="0.0"/>
								</Node>
								<Node score="1" recordCount="3.0">
									<True/>
									<ScoreDistribution value="0" recordCount="0.0"/>
									<ScoreDistribution value="1" recordCount="3.0"/>
								</Node>
							</Node>
							<Node score="0" recordCount="4.0">
								<True/>
								<ScoreDistribution value="0" recordCount="4.0"/>
								<ScoreDistribution value="1" recordCount="0.0"/>
							</Node>
						</Node>
						<Node>
							<SimplePredicate field="double(x2)" operator="lessOrEqual" value="0.074048712849617"/>
							<Node>
								<SimplePredicate field="double(x3)" operator="lessOrEqual" value="0.5445843040943146"/>
								<Node score="1" recordCount="7.0">
									<SimplePredicate field="double(x10)" operator="lessOrEqual" value="0.3175177797675133"/>
									<ScoreDistribution value="0" recordCount="0.0"/>
									<ScoreDistribution value="1" recordCount="7.0"/>
								</Node>
								<Node>
									<SimplePredicate field="double(x3)" operator="lessOrEqual" value="0.3643970787525177"/>
									<Node score="1" recordCount="7.0">
										<SimplePredicate field="double(x9)" operator="lessOrEqual" value="0.9439110457897186"/>
										<ScoreDistribution value="0" recordCount="0.0"/>
										<ScoreDistribution value="1" recordCount="7.0"/>
									</Node>
									<Node score="0" recordCount="1.0">
										<True/>
										<ScoreDistribution value="0" recordCount="1.0"/>
										<ScoreDistribution value="1" recordCount="0.0"/>
									</Node>
								</Node>
								<Node score="0" recordCount="1.0">
									<True/>
									<ScoreDistribution value="0" recordCount="1.0"/>
									<ScoreDistribution value="1" recordCount="0.0"/>
								</Node>
							</Node>
							<Node score="0" recordCount="2.0">
								<True/>
								<ScoreDistribution value="0" recordCount="2.0"/>
								<ScoreDistribution value="1" recordCount="0.0"/>
							</Node>
						</Node>
						<Node>
